[-0.7160031376573872, -0.5511826903405512, 0.6247056279509795, 0.6496371978321368, -0.08963070579027885, 0.2797792265130946, 0.33175908651601077, 2.1003203355618147, -1.4640847486772706, 0.05735276462722169, 0.033514490280994534, 1.2020824761681446, -1.513116447789531, -0.4143814704487013, -0.6528571218878815, -0.016357368029752694, -0.3491506010642684, 0.9190299775666563, -0.16641970941239817, -0.6755767348608768, -0.13382481021829806, 0.42958018179450197, 2.4874973847502173, 0.0881366593716154, 0.531234139965507, -0.8709765769718188, -0.7340511170209537, -1.7825169760869315, 1.7029415993041013, -0.8990912959694166, -0.35211909021184584, 0.21094368187072093, -0.7626154565610346, -0.9924121695121383, -0.27988862981054224, 0.8568616793427404, -0.02888826031181537, -0.581289009365282, 0.797998823907334, -0.5103318536957955, 0.0913332662897807, -0.28977312529888977, -0.9104792780109745, 0.6399208731039339, -1.0381940390847257, 1.432892175497079, -0.9156628284950059, -0.6966566135001016, 0.5403877856371497, 0.2030283574307503, 0.9657046800804596, -0.1451196412690066, 1.609296163024107, 0.4204377419526872, 0.060633527093626086, -0.5163425089435775, 0.10528969338630356, 0.032594489007545385, 0.9912942123944101, -0.3599561750817997, -0.22872270815784876, 0.5665226472010171, -0.6377088431729283, -0.6287535060091256, -0.6607738580394948, -1.1679421650136788, 1.1347727076999383, 1.4456136145367287, -1.0857428444523372, 0.37972356041515487, -1.0544562967638558, 0.1710986817328725, -1.892769833848466, 0.8860751844270417, -0.09353935085357545, -0.040330802560856444, -0.1594452916571606, -0.6599381440035759, -1.3930555322413234, 0.6703046577384988, -0.06506757598443803, 0.8037607713474642, -0.2743706658586017, -0.3230149278416494, 0.8732025464793345, -0.2014766303197395, 0.7981597441742858, -0.34221825166145453, -0.49194843547720735, 0.32449469094658073, 0.43858487676942165, -1.514610047822621, 0.09986090032507854, -0.7463695667619779, -0.23787485672369935, 0.05362539962679514, 0.3415961530158943, -0.6162823097182338, 0.2954291736712592, -0.295428375601708, 0.7707249293185257, 0.06561897766064967, 0.06477818240616028, -0.5112066986513426, -0.2719935252960817, -0.3978045531130869, -0.09069576621924905, 0.38113542605356204, 0.1786973273355228, -0.03298081149671498, 0.1828298895152735, -0.1232301478173177, -0.6991644860996185, -0.6665158653284352, 0.18009640527086407, -0.8042909207095251, 0.9450526005380696, -0.12895126527367148, -0.32625076537205316, -0.9174366649675926, -0.1859217635002781, -0.28529462055709964, 0.12361049946130875, 0.7828882590396239, 0.42335853919347793, 1.0779601671357355, -0.07113942869859277, 1.2801905742101785, -0.506457703337577, 0.6433714820403094, -1.5546717344523122, 0.7340295916887406, 0.13234528196928055, 0.6249867193159823, -0.5591754770256875, 0.8005888447181668, 0.023449623441483797, 1.6648973294216358, 0.6253620300023841, -1.695623836338362, 0.29130037009679766, -1.2208230674223688, 1.1851130428094678, -1.0412451117882475, -0.3169312036664612, -0.08303722747080838, -0.9930105663420284, 0.6519420959230087, -0.555597831507215, 0.4203929221771812, -0.5649880300699419, 0.2808088350236529, -0.2572114006472409, 0.8626334271689773, 0.6200413848945068, 0.06703341436559662, 0.43298252741854354, -1.0616315739540998, 1.420544018011399, -1.668254262509166, -0.49797145686456107, 1.3566390984428414, -0.40846109831733135, 0.35673156400505085, -1.974445136011352, -0.09585607827152691, -1.7597471255569066, 0.7133316753766645, -0.5041959715823972, 0.8135221891669027, 0.3154243558517739, 0.20999114113791625, 0.6981610052112867, 0.7824402267589176, 1.1910472284726106, -0.6065983913125862, -1.6017256993120546, -0.2001644169632261, 0.3243125970507827, -0.13597027777708964, 0.7933161956943396, -0.14528490537602373, -0.725928896441315, -0.6531234215731135, -1.3382735327072617, 0.6936399913035205, 0.4530008946858856, 1.4065973045034477, -1.0476069609987704, -0.0887277453564325, -0.4122315887689284, 0.4346006578140536, 1.7033332063606812, 0.4597403890782195, 0.7266215736956315, -0.8302238533097137, 0.025593484442791734, -0.7478410346720411, 0.045240323797315476, -0.34556917065755294, 0.33359020114784227, 0.7879935919840116, 0.1871678827091643, -0.19049643173922473, -0.7820654958813074, -1.022492234574104, 0.36809044596062307, -0.21658360703316715, -0.7134681662301118, -0.6004313205307731, 0.6309037770210195, -0.34718217541582785, 0.17114005185590905, 0.37999522147712717, 1.5428309205109263, 0.002187536706889568, -1.4421921966398081, -1.4391598604633078, -0.6112404136304106, -0.5994959386369898, 0.14041814990110393, 0.0701627315496975, 0.4414996534424221, -0.0364515635327623, 0.41934209478162204, 1.023138207026112, -0.4802353127730581, 0.6244336549155761, 0.17683627827294124, 1.231530818093302, 0.8181344862985898, 1.6253326057685922, 0.40806047652620764, 1.2924280731782973, -0.26568561764197113, 0.17587093082638316, 0.2336854636750642, -0.18069933641523556, 0.11668490463623207, -0.08931959240608137, -0.6494829464661728, 0.6199491577695584, 0.7825748839696499, -1.141354946099655, -0.8912554331148173, 0.4587116368691955, 0.7358106472115846, 0.9302883712227902, 1.1620966181233945, -0.710939577126667, -0.12474813996985436, -1.369673169710609, -0.8117753463089082, 0.8087580955649999, 0.41740697655057124, -0.4334446356052018, 0.1184209133607422, 0.09513597722422687, 1.5532775364533304, 1.1944489920003463, 0.17147483620035914, -0.09575844203070605, 1.5459908948334424, -0.3496456379996183, -0.6050679478188445, -0.09754880209196622, 0.8520919586667959, -0.9777584969835487, -0.5375498226070151, 0.3691571625642824, -0.37400768731632844, 0.8485143170930792, -0.3766046969618418, 0.06924892543156069, -0.006407497009115609, -0.49632481719995675, -1.6241695207796374, -0.42198626285797874, 0.31421394623699805, 0.854459431832882, -0.7818976876010522, 0.8488343533155365, 0.9015264735717484, 0.3788451603944392, -2.3646436941267246, 0.00825049927911222, 0.39247804820663057, -0.6029272231728094, 0.5525205254784916, 0.28660549267156094, 0.18253612816772313, 1.1542935445160807, 0.34937040618801823, 0.43569209799929276, 0.1834513756797187, -0.4780235935185156, -1.1523892086924699, -0.2634150531902786, -1.3943560581349035, -0.21315037979278645, -0.3950399337923315, -0.708203491974795, 0.23674093733814705, 0.588406513896153, -0.7870789752611579, -0.46354175043833945, 0.393477734683608, 0.32974487673850694, -0.5188434784932257, 0.38030499993130357, -1.5904891280766826, -0.5992342881601519, -1.2294168221067006, 1.0217893903013107, -0.38565635018272554, 0.369494316796738, 0.31646807042616915, -0.3967520257124312, 0.33951216376664495, 0.6197904354370408, 0.9905486330070432, 0.1357373196935272, 0.5634003398220832, -0.5005487422802176, -2.0452617044857697, -0.10848949430447626, -1.7424603577865618, -0.5671521751568569, -1.0241919655092997, 0.6775256093371586, -0.025249262188317856, -0.9204767285010497, -0.3566118637683184, -0.41514705637576194, 0.4591638498360949, -0.653251761489799, -0.5291284758765573, 1.9378932694351667, -1.328740955783315, -0.5221361159243257, 0.7705599896325556, 0.6423717074640339, 0.9299012853505482, -1.5975508001439103, -0.41519930900929364, 0.21568668894551313, 0.9507236330201221, 1.032958542658922, -0.9318707453621153, 0.2989884127087914, 0.09371079947612235, 0.16817003354921686, 0.1987881013818392, 1.6601927075832286, -1.077508174079272, 0.5392312414765299, 0.5949205186496269, -0.4970867256266412, 0.5453249135345846, -0.03237781684351965, -0.7403030481932787, -0.4690462142842697, -0.8076755988564195, 0.9691462729404354, -0.12698220322263548, 1.3662322524078452, -0.5114017234372705, 0.6266277835164292, 0.7034786802777314, 0.5651148466702101, 0.3135201598478074, 0.10773161370387266, 1.3441196602627572, 0.5644563577330147, 1.2768128920606607, -0.4729340266510288, -0.3504393944234144, -0.7760022431496976, -0.12496283743216793, 0.02970798376705567, -1.1333848521414909, 0.6571247665469452, 0.857720006279441, 0.9485615116539221, 0.07729131069088192, -1.281380782840184, 1.395394416241928, 1.5730123610150788, -0.5811729447436137, -0.21176352823423408, -0.6185358746711218, 1.0812137779670856, 0.4613189931351785, -1.7965387584069772, -0.478630650959871, 0.9505096693546071, -0.899006284427093, -1.1468343381584556, 1.513518899498306, -0.385215204619642, -0.6931404396241291, -0.5825312407890371, -1.2708816609102669, -0.8238377626335888, -1.550441585700168, 0.6834633381475435, 1.256907560729742, -0.54702652948561, -0.1972352834486992, 0.10099197266893072, 0.7620037904061697, -1.0994542901034412, 0.37840949233506876, -0.3037467551915715, -0.4730093115488682, -0.36834455817474654, -0.10128571468412355, -0.6511659533268163, -0.628054896617759, 0.6464321537431446, 1.455282579646218, -0.13966156756952677, 1.4695305570309258, -0.3102121926712973, 0.5462216511856386, 0.9334018777366762, -0.41991992941530076, 0.48005647708438043, -1.296487522089486, -0.7401103065892609, 0.1640240514393879, -0.37198492393800864, 0.08679295129327308, 0.6963640176442404, -0.6206396830128708, 0.905644862972465, -0.7781402673683209, 0.06596871875378782, 0.25286663390362346, 0.8214802697214805, 0.2593704074264965, -1.1589962225689754, 0.08516658557313274, 0.12200109338400489, -0.09481136360941275, -1.194744730266007, -0.2069707424835738, -0.41292633807896856, 1.137032209357833, 0.8467683633469699, -0.023543097074087662, 0.3609946429613357, -0.07137743396469837, -0.9487241902868433, -1.2927382321820293, -0.5789280253711324, -0.26456538052132617, 0.9915992038701719, 1.3398411687195115, 1.173039735712329, -0.38050284321268074, -0.03331718475722447, 1.0646106368449417, -0.0065092485112629855, 0.043385769368269336, 0.36683518980120217, 0.055367723754551894, 0.1948389589001815, 0.5421181237713733, 1.6114484584673345, -0.0843762062394283, 0.42375064076286023, -0.011800185578149797, -0.34418966809039825, -0.47981398642331347, -0.5961301672235451, -0.009527061520388715, 0.26053851019543306, 1.0593374664459043, 0.024583753197772847, 0.47732387650368513, 0.35108243406183776, -0.31729301878823335, -1.7224273374262704, 0.43041026799368265, -0.6177630951900964, 0.11538630827391141, 0.2223402256096124, 1.0182674795591384, 0.872748842135776, -0.09095234206009215, 2.1974807184661906, -0.913236441158363, 1.1650023887758778, 1.7228440313355102, -1.0347254085351938, 0.6577920054837749, -0.4223549463492148, -0.9311340616070571, -0.32882951679601036, -1.4296124128777874, 1.2694063393418018, 0.10504814314921063, 0.7316515832677719, -0.46472076454526995, -0.13425060930891392, 0.6656854541273984, -0.27651963803667656, 0.06054100518223769, 0.9237863164374343, -0.6383963079559425, -0.1324398710429896, 0.13481635610659995, 0.46964826798768194, 0.2821211850545539, -0.9470022940407103, -0.25845555525900277, 0.801525728727075, -0.4523507073578864, -0.3489167678573788, -0.5882779904944642, 0.33259625997541264, 0.15856498101440544, -1.4317485274285255, 0.14021651057789147, 0.8323074629778279, 0.5658321094535237, 0.05072632318358171, 1.340533031243916, -1.0992637143416617, -0.47212114035604, -1.8256706226774477, -0.5463755640883451, -0.14244280063690226, 0.16514796106623633, 0.014713729649903159, 0.509558331968026, -1.1567529672574868, 0.1470895659373286, 0.4275985193774779, -0.6548097329394116, 0.6224845651393888, 1.3510719195735996, -0.4179188800349098, 0.020078977204795727, 0.40308198484070656, -0.2283220955413069, -0.7119064268779568, 0.7266648975380832, -0.13131065845139425, 0.33790595506938553, 0.9094255039048317, -1.2486789442331934, -1.179599237989104, -0.8031136177013352, -1.084106322088064, -0.7475800515884833, -0.28208393660488906, -0.2997467607378939, -0.7134414202102164, -0.4731156251163136, 0.17113324200207228, 0.8675797233221797, 0.30682907707928747, 0.4326727587048758, 0.6330513850809577, -0.38991778207364136, 0.39230378892372203, -1.0060148188979114, -0.022636686514661823, 0.23167128545674734, -0.34923899612589693, 0.21986636366138348, -1.7326272458749559, 0.7926701957329432, -0.6723918003297668, 0.7486266377853019, 0.10941944135795804, 0.24042570130579086, -0.20963332496931206, 0.6266864053889603, -0.03853877601333439, -0.3217347804903314, -0.6908174948032569, -0.6744352761083036, -1.5564982539758385, -0.4269706397397091, -0.07739338201349864, -0.3706313201985149, -0.8042578102591951, 2.2488208413069786, -0.522402791134455, -0.24328217105163463, -0.5402937511401302, 0.4183921407339353, 0.19758179947840004, -0.3694164925976597, 0.06418694743883875, 0.2847432525543539, 1.296470944020907, 0.2930629723753744, -0.9056843105987994, -1.0469961266180208, 1.264318114934791, 0.4528552841754411, 0.2680249713539208, -0.37565986159849485, 0.23959013222692335, -0.5044490437046055, 0.18770815653144726, 0.3575615833465211, -0.7093832247679402, 0.47263172287852484, 0.13668509942375984, -0.8839681849511962, 0.1255812842401876, -0.10368185379219691, 1.317137943621777, -1.530165859196854, -0.4245041412751388, 0.32671027527093266, -0.5704376748466993, -0.10355354449955005, 1.2354767641890874, -0.565282884715776, 0.9976069506220788, -0.7180468792795589, 0.35063580845632486, 1.867775578087955, -0.06951799814118688, 0.21855716964332272, -0.9373348374926779, -1.5980159531539273, -0.6170892914508046, -0.5316085134889361, 0.3999081682824494, 0.455476955010859, 0.31266691269579244, -0.7546939001445675, 0.3114043095038657, -0.839849736914868, -1.0079609718932419, -1.2005061157684915, -0.3193015265523741, -0.8476925376941689, -0.6847310555742032, 0.7578479335660532, 0.07845660515584024, -0.152034331409034, 0.32815327368244107, 1.2681592967434592, -1.6584423687431582, -0.35845518810427723, 0.24294146269279546, -0.20377318269305092, -0.38118700275280454, 0.2464789045069554, -0.3467140845847516, -0.2783604545312412, 0.809161733026115, -0.6663492107223231, 0.46501880901033865, 1.7368393767452863, -0.5782861835931741, 0.669545185475713, -0.9551853813751656, -0.5193080824459921, -0.8670604544433407, -0.1648733870434128, -0.9165291163414429, 0.06893577123692604, 0.12113887782683395, 0.728432540082061, 0.3865326379657651, 0.23055336942742588, -1.2344450338797717, -0.508834471185202, 0.7825740245465951, 0.8156929315827323, -1.1635247962707156, -0.3329873772938764, -1.0666782043439362, -1.8560015595185893, 0.05439778001967165, -1.1478170663981446, 0.0166107517791151, 1.0669209070623635, 0.6769981568476011, 1.077859573429088, 0.07263256627008116, -0.23567316811376604, 0.33323579832486866, -0.696382929015702, -0.21523143124875233, -1.0318743332092566, 0.7481759971984732, 0.551154221603205, -0.6405131250393709, -1.178816030490133, -0.09735288607670042, 1.1448663755079407, 1.0693146381125225, 0.1337065714064604, 0.9079079046156734, 0.3175591563704328, 0.40141802240567354, -0.4947227898098085, 0.2458164231584811, -1.226305289482312, 1.516856622891805, 1.4354570768452386, 0.778673564701449, 0.3957400358040432, -1.070342098198771, -1.4895993027278709, 0.686684022239405, 0.09320611599003671, 0.6951842392580984, -1.2306899275725591, -0.5184932232086685, -0.8012641116592453, -0.3497355847913123, 0.34882722958614837, 0.5004806980902314, 0.4148265238534811, 1.0524771123597925, 0.48346961624174467, 0.8068453748806974, 0.8664696099562258, 1.8330093594777377, -0.9931878774419273, 0.4559665749171012, -1.6216401361156352, -0.7601790582544011, 0.6108394111273963, -0.046368392825271415, -0.10053759249219581, -1.409593430016537, -0.7936527172561194, -0.19496489997674638, -0.5175377753802749, 0.11332128198847437, -0.586416466600624, 0.2702563959578638, 0.4160441714228623, 0.1758094333973231, 0.4237623194108904, -1.1906732960477093, 0.49600965141666953, 0.05160322525291492, -0.8554484308146422, 0.43195504968131554, 0.6770963267352402, 0.9499205544794822, 1.0730915504787697, -1.1079788310585699, -0.9106642728296115, -0.7412145699186121, 0.14210085496417274, 0.8426717808605901, -0.1703473633842074, -0.35328838135151525, 0.9183802565537508, 0.5677854607606063, -0.959433116186621, 0.15007527885103777, -0.5532570832054887, -1.2378097587956276, -0.9810831051494453, -0.7175881237576779, 0.3501060928725763, -0.4008976663467828, 0.3019551789632102, -0.1912878380069588, -0.9563348180264384, 0.22147363039351925, 0.13007677750540345, -0.398943207855672, 0.5334157727453669, -1.036908663776821, -1.0515622368321182, 0.0669057232546671, -0.9524965363973784, -0.6777353863277062, -0.28929937731489197, 0.5872512788988238, -0.8015484703827067, -0.5243692340714051, 0.7510909188194078, 0.6592005152354826, -0.24301291155910426, -0.31609027295205383, -0.18176011239815074, -0.5442490032145039, 1.2770366073481065, 0.11769826412672166, 0.5014062349939578, -0.13601134156338476, 1.6169355246399508, -0.4300698809332021, -0.49247528809786667, 0.5813660081501605, 0.7166786546687282, -0.675316575144673, -0.4081231109160774, -1.053556165866523, -1.0559798003190417, 1.5113221666160723, -0.6667320044489402, 0.38201331093747404, -1.2996160399188048, -0.6398425811146659, 0.36368375417568943, 0.9643607157576913, 1.0859761845419729, -1.1297884372105271, -1.2741800853608796, 0.35231056540964956, 0.3314018065670979, 0.2863566546798948, -0.10216028514135511, -1.1760688163966007, 0.2962508180365803, 2.2756488563253074, 0.3650557954081723, -0.7771501523681711, 0.9590587107874896, 0.5593948362989961, -2.0305035744568865, 0.16371596059197732, -0.06018616807569622, -0.2959371620677772, -1.053239588712626, -0.19660512262493388, -0.4909230559608194, 0.4961821424023951, 0.28245746628650875, 0.42289612388773345, 1.6994647039170936, 0.35692971820520486, -1.0831025870466955, -0.6180171858397417, -0.6569691875249954, -0.13231048539128343, 1.8344458968507056, 0.9068667883143865, 0.9267066350289405, 1.1429717355283107, 0.7827421338420875, -0.44130879659007904, 0.2675731920688543, -0.22377220922801433, 0.06869795994581288, -0.003391469823006133, -0.07510399841690873, -0.6224813363820623, -0.334501109193692, -1.285179477855943, -0.0027641348018263567, -1.775488426865674, 0.0769908480175027, 0.013766965951095528, -0.24883159765588145, -0.12069233677372394, 0.16587424328412623, -0.9406576924837095, -0.22093676362686762, -0.5458359183984789, -0.6687077342045805, 0.06840701937143362, -0.3188553821759848, -0.7414760984317019, -1.0663128815114742, -1.2889819072393367, -1.0582097829360222, -1.9530205327291192, -0.6143321465310235, -0.3130977708551654, -0.20495503050407293, -1.7398997764281405, 0.04966225104551, -0.49663065594020595, -0.44411143726769053, -0.2980845844618394, -0.07495453851861889, -0.9522878249619955, 0.14940376234473635, -0.2599545832062715, 0.356541109678065, 1.1821163557997236, -0.43950990009035024, 0.16633688170559274, -0.437794410303084, 1.1330521523561061, -0.3809897124430785, 0.11497881647669883, -0.8889745934993852, -0.2868985021772374, 0.6737400100830808, 0.7727220932019992, 0.46818006883422936, -0.5384434608535787, 0.36161464366689083, -0.8274547120953106, 0.07989537731268932, -0.22026519883443874, 0.022008220554744676, -0.28485475108377584, -1.4009237703938096, -0.2786863115056287, 1.1312258211668458, -0.4514873138300515, -0.059495514751634365, 1.3402939474311428, -0.5050642798215467, -0.32754809129814316, -0.6002264851647537, -0.25692009223681467, 1.4204967617124622, 0.20276188590011435, 0.962608354758069, -0.9935229377127979, -1.2822980897614316, -1.4835461279949855, -0.458022417815646, -0.4703860240967959, -1.2806388429848048, 0.08901891397211788, -0.9623527254535451, -0.510939322157485, 0.13748189750785222, -0.05243801821483857, -0.4620647227775927, -0.4479493238613332, 0.8781098193831003, -0.15936579062351108, 0.11443259839407026, -1.3791547709059089, 0.42977196580130567, 0.5659213072313631, 1.3825017326931777, -0.35062845458889685, 0.21799917344753617, 1.7830370626519039, -0.47450256692713977, 0.5299804070578157, -1.3958504715701714, -0.7592575371498432, 0.6094786551208166, -0.25609596010892227, -0.06948066114080231, -0.6710764371094284, 0.12543221240378016, 0.2939231662911799, 1.107352788840081, -0.0770967253700253, -0.5790451379829916, -0.5340160482495514, -0.31748182217174425, -0.24731452356243927, 0.19692484007953254, 0.42619490518111436, -0.48807212898472657, 0.5833708043905285, 0.00307809490297355, 1.155766667639074, -0.5599029471137918, -0.9674908081546918, 1.2966491635736301, 0.7702474988673758, 0.5239028723799449, -0.8024851289099154, 0.4305773417522681, -1.806473296805226, 0.28303115430634046, 1.0001807515755692, -0.8198939615998546, -0.7716446019192598, 0.44821764262493025, 1.8785879200370847, -0.6590385168409517, -0.14775310802472663, -1.9234667582352547, -0.2931108524861627, 0.6304775863388224, -0.4615359271031313, -0.2080036768947942, -1.7875603202107166, 1.1927032847649324, 0.6858866986216822, 0.044246752381186985, 0.6828437166337245, 0.12694710378636676, 0.6221421338852852, 0.3010767298216726, 0.8442109493331071, -0.07306379267513835, -1.2152117775185518, -0.23086437475041943, 1.0297575010381441, 0.877942476310425, -0.34111924495275014, -0.10671611781954213, 1.1442208946558083, 0.12047253555230103, -0.5394633771927071, 0.2583921777832515, -0.9255274508514495, 0.0007801408202706209, -1.6416578208912038, -0.27544085980575117, 1.2068858104806335, -0.995784732764563, 0.2599765827125597, 0.2797610088231977, -0.3882240765661715, -0.03319763526659479, 0.22711949497713907, 0.0558329375827281, -0.5988357965140437, -0.20397555674024653, 0.3435036245332868, 0.09467554443537105, -0.3583656644243466]